digraph Tree {
node [shape=box] ;
0 [label="X[4] <= 20577.0\nentropy = 0.9997\nsamples = 528\nvalue = [259, 269]"] ;
1 [label="X[3] <= 189.0\nentropy = 0.6098\nsamples = 200\nvalue = [30, 170]"] ;
0 -> 1 [labeldistance=2.5, labelangle=45, headlabel="True"] ;
2 [label="X[4] <= 16402.5\nentropy = 0.9993\nsamples = 33\nvalue = [17, 16]"] ;
1 -> 2 ;
3 [label="X[4] <= 13043.5\nentropy = 0.3373\nsamples = 16\nvalue = [1, 15]"] ;
2 -> 3 ;
4 [label="entropy = 0.9183\nsamples = 3\nvalue = [1, 2]"] ;
3 -> 4 ;
5 [label="entropy = 0.0\nsamples = 13\nvalue = [0, 13]"] ;
3 -> 5 ;
6 [label="X[4] <= 19010.0\nentropy = 0.3228\nsamples = 17\nvalue = [16, 1]"] ;
2 -> 6 ;
7 [label="entropy = 0.0\nsamples = 10\nvalue = [10, 0]"] ;
6 -> 7 ;
8 [label="X[3] <= 170.5\nentropy = 0.5917\nsamples = 7\nvalue = [6, 1]"] ;
6 -> 8 ;
9 [label="entropy = 0.0\nsamples = 4\nvalue = [4, 0]"] ;
8 -> 9 ;
10 [label="entropy = 0.9183\nsamples = 3\nvalue = [2, 1]"] ;
8 -> 10 ;
11 [label="X[4] <= 17396.0\nentropy = 0.3945\nsamples = 167\nvalue = [13, 154]"] ;
1 -> 11 ;
12 [label="entropy = 0.0\nsamples = 73\nvalue = [0, 73]"] ;
11 -> 12 ;
13 [label="X[3] <= 364.5\nentropy = 0.5798\nsamples = 94\nvalue = [13, 81]"] ;
11 -> 13 ;
14 [label="X[1] <= 4.5\nentropy = 0.8037\nsamples = 53\nvalue = [13, 40]"] ;
13 -> 14 ;
15 [label="entropy = 0.9877\nsamples = 23\nvalue = [13, 10]"] ;
14 -> 15 ;
16 [label="entropy = 0.0\nsamples = 30\nvalue = [0, 30]"] ;
14 -> 16 ;
17 [label="entropy = 0.0\nsamples = 41\nvalue = [0, 41]"] ;
13 -> 17 ;
18 [label="X[4] <= 25532.5\nentropy = 0.8835\nsamples = 328\nvalue = [229, 99]"] ;
0 -> 18 [labeldistance=2.5, labelangle=-45, headlabel="False"] ;
19 [label="X[1] <= 4.5\nentropy = 0.9856\nsamples = 156\nvalue = [89, 67]"] ;
18 -> 19 ;
20 [label="X[3] <= 326.0\nentropy = 0.8256\nsamples = 81\nvalue = [60, 21]"] ;
19 -> 20 ;
21 [label="X[4] <= 21572.0\nentropy = 0.4489\nsamples = 32\nvalue = [29, 3]"] ;
20 -> 21 ;
22 [label="entropy = 0.0\nsamples = 9\nvalue = [9, 0]"] ;
21 -> 22 ;
23 [label="entropy = 0.5586\nsamples = 23\nvalue = [20, 3]"] ;
21 -> 23 ;
24 [label="X[3] <= 420.5\nentropy = 0.9486\nsamples = 49\nvalue = [31, 18]"] ;
20 -> 24 ;
25 [label="entropy = 0.998\nsamples = 38\nvalue = [20, 18]"] ;
24 -> 25 ;
26 [label="entropy = 0.0\nsamples = 11\nvalue = [11, 0]"] ;
24 -> 26 ;
27 [label="X[3] <= 386.0\nentropy = 0.9626\nsamples = 75\nvalue = [29, 46]"] ;
19 -> 27 ;
28 [label="X[4] <= 23247.0\nentropy = 0.9682\nsamples = 43\nvalue = [26, 17]"] ;
27 -> 28 ;
29 [label="entropy = 0.9799\nsamples = 24\nvalue = [10, 14]"] ;
28 -> 29 ;
30 [label="entropy = 0.6292\nsamples = 19\nvalue = [16, 3]"] ;
28 -> 30 ;
31 [label="X[4] <= 23328.0\nentropy = 0.4489\nsamples = 32\nvalue = [3, 29]"] ;
27 -> 31 ;
32 [label="entropy = 0.0\nsamples = 14\nvalue = [0, 14]"] ;
31 -> 32 ;
33 [label="entropy = 0.65\nsamples = 18\nvalue = [3, 15]"] ;
31 -> 33 ;
34 [label="X[2] <= 3.5\nentropy = 0.6931\nsamples = 172\nvalue = [140, 32]"] ;
18 -> 34 ;
35 [label="X[3] <= 306.5\nentropy = 0.4426\nsamples = 98\nvalue = [89, 9]"] ;
34 -> 35 ;
36 [label="entropy = 0.0\nsamples = 19\nvalue = [19, 0]"] ;
35 -> 36 ;
37 [label="X[4] <= 27376.5\nentropy = 0.5116\nsamples = 79\nvalue = [70, 9]"] ;
35 -> 37 ;
38 [label="entropy = 0.7642\nsamples = 27\nvalue = [21, 6]"] ;
37 -> 38 ;
39 [label="entropy = 0.3182\nsamples = 52\nvalue = [49, 3]"] ;
37 -> 39 ;
40 [label="X[4] <= 38823.5\nentropy = 0.8941\nsamples = 74\nvalue = [51, 23]"] ;
34 -> 40 ;
41 [label="X[3] <= 418.5\nentropy = 0.9468\nsamples = 63\nvalue = [40, 23]"] ;
40 -> 41 ;
42 [label="entropy = 0.8813\nsamples = 50\nvalue = [35, 15]"] ;
41 -> 42 ;
43 [label="entropy = 0.9612\nsamples = 13\nvalue = [5, 8]"] ;
41 -> 43 ;
44 [label="entropy = 0.0\nsamples = 11\nvalue = [11, 0]"] ;
40 -> 44 ;
}