digraph Tree {
node [shape=box] ;
0 [label="X[4] <= 20575.0\ngini = 0.4997\nsamples = 392\nvalue = [191, 201]"] ;
1 [label="X[3] <= 189.0\ngini = 0.2591\nsamples = 170\nvalue = [26, 144]"] ;
0 -> 1 [labeldistance=2.5, labelangle=45, headlabel="True"] ;
2 [label="X[4] <= 16402.5\ngini = 0.4915\nsamples = 23\nvalue = [13, 10]"] ;
1 -> 2 ;
3 [label="gini = 0.18\nsamples = 10\nvalue = [1, 9]"] ;
2 -> 3 ;
4 [label="gini = 0.142\nsamples = 13\nvalue = [12, 1]"] ;
2 -> 4 ;
5 [label="X[4] <= 17396.0\ngini = 0.1612\nsamples = 147\nvalue = [13, 134]"] ;
1 -> 5 ;
6 [label="gini = 0.0\nsamples = 64\nvalue = [0, 64]"] ;
5 -> 6 ;
7 [label="X[3] <= 345.5\ngini = 0.2642\nsamples = 83\nvalue = [13, 70]"] ;
5 -> 7 ;
8 [label="X[1] <= 4.5\ngini = 0.4383\nsamples = 37\nvalue = [12, 25]"] ;
7 -> 8 ;
9 [label="X[3] <= 277.5\ngini = 0.375\nsamples = 16\nvalue = [12, 4]"] ;
8 -> 9 ;
10 [label="gini = 0.0\nsamples = 7\nvalue = [7, 0]"] ;
9 -> 10 ;
11 [label="gini = 0.4938\nsamples = 9\nvalue = [5, 4]"] ;
9 -> 11 ;
12 [label="gini = 0.0\nsamples = 21\nvalue = [0, 21]"] ;
8 -> 12 ;
13 [label="X[3] <= 364.5\ngini = 0.0425\nsamples = 46\nvalue = [1, 45]"] ;
7 -> 13 ;
14 [label="gini = 0.2449\nsamples = 7\nvalue = [1, 6]"] ;
13 -> 14 ;
15 [label="gini = 0.0\nsamples = 39\nvalue = [0, 39]"] ;
13 -> 15 ;
16 [label="X[1] <= 4.5\ngini = 0.3817\nsamples = 222\nvalue = [165, 57]"] ;
0 -> 16 [labeldistance=2.5, labelangle=-45, headlabel="False"] ;
17 [label="X[3] <= 314.5\ngini = 0.1849\nsamples = 97\nvalue = [87, 10]"] ;
16 -> 17 ;
18 [label="gini = 0.0\nsamples = 31\nvalue = [31, 0]"] ;
17 -> 18 ;
19 [label="X[4] <= 22906.5\ngini = 0.2571\nsamples = 66\nvalue = [56, 10]"] ;
17 -> 19 ;
20 [label="X[3] <= 351.5\ngini = 0.4444\nsamples = 15\nvalue = [10, 5]"] ;
19 -> 20 ;
21 [label="gini = 0.2188\nsamples = 8\nvalue = [7, 1]"] ;
20 -> 21 ;
22 [label="gini = 0.4898\nsamples = 7\nvalue = [3, 4]"] ;
20 -> 22 ;
23 [label="X[3] <= 410.5\ngini = 0.1769\nsamples = 51\nvalue = [46, 5]"] ;
19 -> 23 ;
24 [label="X[4] <= 27333.5\ngini = 0.2778\nsamples = 30\nvalue = [25, 5]"] ;
23 -> 24 ;
25 [label="gini = 0.4152\nsamples = 17\nvalue = [12, 5]"] ;
24 -> 25 ;
26 [label="gini = 0.0\nsamples = 13\nvalue = [13, 0]"] ;
24 -> 26 ;
27 [label="gini = 0.0\nsamples = 21\nvalue = [21, 0]"] ;
23 -> 27 ;
28 [label="X[4] <= 25687.5\ngini = 0.4692\nsamples = 125\nvalue = [78, 47]"] ;
16 -> 28 ;
29 [label="X[3] <= 386.0\ngini = 0.4761\nsamples = 64\nvalue = [25, 39]"] ;
28 -> 29 ;
30 [label="X[4] <= 23321.0\ngini = 0.4297\nsamples = 32\nvalue = [22, 10]"] ;
29 -> 30 ;
31 [label="X[1] <= 7.5\ngini = 0.4986\nsamples = 19\nvalue = [10, 9]"] ;
30 -> 31 ;
32 [label="gini = 0.3967\nsamples = 11\nvalue = [8, 3]"] ;
31 -> 32 ;
33 [label="gini = 0.375\nsamples = 8\nvalue = [2, 6]"] ;
31 -> 33 ;
34 [label="gini = 0.142\nsamples = 13\nvalue = [12, 1]"] ;
30 -> 34 ;
35 [label="X[4] <= 23328.0\ngini = 0.1699\nsamples = 32\nvalue = [3, 29]"] ;
29 -> 35 ;
36 [label="gini = 0.0\nsamples = 14\nvalue = [0, 14]"] ;
35 -> 36 ;
37 [label="X[0] <= 13.0\ngini = 0.2778\nsamples = 18\nvalue = [3, 15]"] ;
35 -> 37 ;
38 [label="gini = 0.4444\nsamples = 9\nvalue = [3, 6]"] ;
37 -> 38 ;
39 [label="gini = 0.0\nsamples = 9\nvalue = [0, 9]"] ;
37 -> 39 ;
40 [label="X[1] <= 9.5\ngini = 0.2279\nsamples = 61\nvalue = [53, 8]"] ;
28 -> 40 ;
41 [label="X[1] <= 7.5\ngini = 0.1769\nsamples = 51\nvalue = [46, 5]"] ;
40 -> 41 ;
42 [label="X[1] <= 6.5\ngini = 0.2392\nsamples = 36\nvalue = [31, 5]"] ;
41 -> 42 ;
43 [label="gini = 0.095\nsamples = 20\nvalue = [19, 1]"] ;
42 -> 43 ;
44 [label="gini = 0.375\nsamples = 16\nvalue = [12, 4]"] ;
42 -> 44 ;
45 [label="gini = 0.0\nsamples = 15\nvalue = [15, 0]"] ;
41 -> 45 ;
46 [label="gini = 0.42\nsamples = 10\nvalue = [7, 3]"] ;
40 -> 46 ;
}