digraph Tree {
node [shape=box] ;
0 [label="X[4] <= 20575.0\nentropy = 0.9994\nsamples = 447\nvalue = [217, 230]"] ;
1 [label="X[3] <= 189.0\nentropy = 0.6236\nsamples = 180\nvalue = [28, 152]"] ;
0 -> 1 [labeldistance=2.5, labelangle=45, headlabel="True"] ;
2 [label="entropy = 0.971\nsamples = 25\nvalue = [15, 10]"] ;
1 -> 2 ;
3 [label="X[4] <= 17396.0\nentropy = 0.4157\nsamples = 155\nvalue = [13, 142]"] ;
1 -> 3 ;
4 [label="entropy = 0.0\nsamples = 66\nvalue = [0, 66]"] ;
3 -> 4 ;
5 [label="X[3] <= 364.5\nentropy = 0.5999\nsamples = 89\nvalue = [13, 76]"] ;
3 -> 5 ;
6 [label="entropy = 0.8427\nsamples = 48\nvalue = [13, 35]"] ;
5 -> 6 ;
7 [label="entropy = 0.0\nsamples = 41\nvalue = [0, 41]"] ;
5 -> 7 ;
8 [label="X[4] <= 25469.5\nentropy = 0.8715\nsamples = 267\nvalue = [189, 78]"] ;
0 -> 8 [labeldistance=2.5, labelangle=-45, headlabel="False"] ;
9 [label="X[0] <= 7.0\nentropy = 0.9814\nsamples = 131\nvalue = [76, 55]"] ;
8 -> 9 ;
10 [label="X[3] <= 314.5\nentropy = 0.7732\nsamples = 66\nvalue = [51, 15]"] ;
9 -> 10 ;
11 [label="entropy = 0.2762\nsamples = 21\nvalue = [20, 1]"] ;
10 -> 11 ;
12 [label="entropy = 0.8945\nsamples = 45\nvalue = [31, 14]"] ;
10 -> 12 ;
13 [label="X[3] <= 386.0\nentropy = 0.9612\nsamples = 65\nvalue = [25, 40]"] ;
9 -> 13 ;
14 [label="entropy = 0.9518\nsamples = 35\nvalue = [22, 13]"] ;
13 -> 14 ;
15 [label="entropy = 0.469\nsamples = 30\nvalue = [3, 27]"] ;
13 -> 15 ;
16 [label="X[1] <= 6.5\nentropy = 0.6557\nsamples = 136\nvalue = [113, 23]"] ;
8 -> 16 ;
17 [label="X[3] <= 337.0\nentropy = 0.4651\nsamples = 81\nvalue = [73, 8]"] ;
16 -> 17 ;
18 [label="entropy = 0.0\nsamples = 25\nvalue = [25, 0]"] ;
17 -> 18 ;
19 [label="entropy = 0.5917\nsamples = 56\nvalue = [48, 8]"] ;
17 -> 19 ;
20 [label="X[4] <= 30936.5\nentropy = 0.8454\nsamples = 55\nvalue = [40, 15]"] ;
16 -> 20 ;
21 [label="entropy = 0.971\nsamples = 30\nvalue = [18, 12]"] ;
20 -> 21 ;
22 [label="entropy = 0.5294\nsamples = 25\nvalue = [22, 3]"] ;
20 -> 22 ;
}