digraph Tree {
node [shape=box] ;
0 [label="X[4] <= 20575.0\ngini = 0.4997\nsamples = 392\nvalue = [191, 201]"] ;
1 [label="X[3] <= 189.0\ngini = 0.2591\nsamples = 170\nvalue = [26, 144]"] ;
0 -> 1 [labeldistance=2.5, labelangle=45, headlabel="True"] ;
2 [label="X[4] <= 16402.5\ngini = 0.4915\nsamples = 23\nvalue = [13, 10]"] ;
1 -> 2 ;
3 [label="gini = 0.18\nsamples = 10\nvalue = [1, 9]"] ;
2 -> 3 ;
4 [label="gini = 0.142\nsamples = 13\nvalue = [12, 1]"] ;
2 -> 4 ;
5 [label="X[4] <= 17396.0\ngini = 0.1612\nsamples = 147\nvalue = [13, 134]"] ;
1 -> 5 ;
6 [label="gini = 0.0\nsamples = 64\nvalue = [0, 64]"] ;
5 -> 6 ;
7 [label="X[3] <= 345.5\ngini = 0.2642\nsamples = 83\nvalue = [13, 70]"] ;
5 -> 7 ;
8 [label="X[1] <= 4.5\ngini = 0.4383\nsamples = 37\nvalue = [12, 25]"] ;
7 -> 8 ;
9 [label="X[3] <= 277.5\ngini = 0.375\nsamples = 16\nvalue = [12, 4]"] ;
8 -> 9 ;
10 [label="gini = 0.0\nsamples = 7\nvalue = [7, 0]"] ;
9 -> 10 ;
11 [label="gini = 0.4938\nsamples = 9\nvalue = [5, 4]"] ;
9 -> 11 ;
12 [label="gini = 0.0\nsamples = 21\nvalue = [0, 21]"] ;
8 -> 12 ;
13 [label="X[3] <= 364.5\ngini = 0.0425\nsamples = 46\nvalue = [1, 45]"] ;
7 -> 13 ;
14 [label="gini = 0.2449\nsamples = 7\nvalue = [1, 6]"] ;
13 -> 14 ;
15 [label="gini = 0.0\nsamples = 39\nvalue = [0, 39]"] ;
13 -> 15 ;
16 [label="X[4] <= 25687.5\ngini = 0.3817\nsamples = 222\nvalue = [165, 57]"] ;
0 -> 16 [labeldistance=2.5, labelangle=-45, headlabel="False"] ;
17 [label="X[1] <= 4.5\ngini = 0.4692\nsamples = 125\nvalue = [78, 47]"] ;
16 -> 17 ;
18 [label="X[3] <= 314.5\ngini = 0.2279\nsamples = 61\nvalue = [53, 8]"] ;
17 -> 18 ;
19 [label="gini = 0.0\nsamples = 21\nvalue = [21, 0]"] ;
18 -> 19 ;
20 [label="X[3] <= 418.5\ngini = 0.32\nsamples = 40\nvalue = [32, 8]"] ;
18 -> 20 ;
21 [label="X[3] <= 364.5\ngini = 0.3995\nsamples = 29\nvalue = [21, 8]"] ;
20 -> 21 ;
22 [label="gini = 0.2604\nsamples = 13\nvalue = [11, 2]"] ;
21 -> 22 ;
23 [label="gini = 0.4688\nsamples = 16\nvalue = [10, 6]"] ;
21 -> 23 ;
24 [label="gini = 0.0\nsamples = 11\nvalue = [11, 0]"] ;
20 -> 24 ;
25 [label="X[3] <= 386.0\ngini = 0.4761\nsamples = 64\nvalue = [25, 39]"] ;
17 -> 25 ;
26 [label="X[0] <= 11.0\ngini = 0.4297\nsamples = 32\nvalue = [22, 10]"] ;
25 -> 26 ;
27 [label="gini = 0.142\nsamples = 13\nvalue = [12, 1]"] ;
26 -> 27 ;
28 [label="X[4] <= 22078.5\ngini = 0.4986\nsamples = 19\nvalue = [10, 9]"] ;
26 -> 28 ;
29 [label="gini = 0.2449\nsamples = 7\nvalue = [1, 6]"] ;
28 -> 29 ;
30 [label="gini = 0.375\nsamples = 12\nvalue = [9, 3]"] ;
28 -> 30 ;
31 [label="X[4] <= 23328.0\ngini = 0.1699\nsamples = 32\nvalue = [3, 29]"] ;
25 -> 31 ;
32 [label="gini = 0.0\nsamples = 14\nvalue = [0, 14]"] ;
31 -> 32 ;
33 [label="X[0] <= 13.0\ngini = 0.2778\nsamples = 18\nvalue = [3, 15]"] ;
31 -> 33 ;
34 [label="gini = 0.4444\nsamples = 9\nvalue = [3, 6]"] ;
33 -> 34 ;
35 [label="gini = 0.0\nsamples = 9\nvalue = [0, 9]"] ;
33 -> 35 ;
36 [label="X[1] <= 9.5\ngini = 0.1849\nsamples = 97\nvalue = [87, 10]"] ;
16 -> 36 ;
37 [label="X[4] <= 27434.5\ngini = 0.148\nsamples = 87\nvalue = [80, 7]"] ;
36 -> 37 ;
38 [label="X[4] <= 27009.5\ngini = 0.2604\nsamples = 26\nvalue = [22, 4]"] ;
37 -> 38 ;
39 [label="X[4] <= 26444.0\ngini = 0.0997\nsamples = 19\nvalue = [18, 1]"] ;
38 -> 39 ;
40 [label="gini = 0.0\nsamples = 11\nvalue = [11, 0]"] ;
39 -> 40 ;
41 [label="gini = 0.2188\nsamples = 8\nvalue = [7, 1]"] ;
39 -> 41 ;
42 [label="gini = 0.4898\nsamples = 7\nvalue = [4, 3]"] ;
38 -> 42 ;
43 [label="X[4] <= 30243.0\ngini = 0.0935\nsamples = 61\nvalue = [58, 3]"] ;
37 -> 43 ;
44 [label="gini = 0.0\nsamples = 29\nvalue = [29, 0]"] ;
43 -> 44 ;
45 [label="X[4] <= 31518.5\ngini = 0.1699\nsamples = 32\nvalue = [29, 3]"] ;
43 -> 45 ;
46 [label="gini = 0.375\nsamples = 8\nvalue = [6, 2]"] ;
45 -> 46 ;
47 [label="gini = 0.0799\nsamples = 24\nvalue = [23, 1]"] ;
45 -> 47 ;
48 [label="gini = 0.42\nsamples = 10\nvalue = [7, 3]"] ;
36 -> 48 ;
}