digraph Tree {
node [shape=box] ;
0 [label="X[4] <= 23535.5\ngini = 0.5\nsamples = 50\nvalue = [25, 25]"] ;
1 [label="X[3] <= 168.5\ngini = 0.3324\nsamples = 19\nvalue = [4, 15]"] ;
0 -> 1 [labeldistance=2.5, labelangle=45, headlabel="True"] ;
2 [label="gini = 0.4444\nsamples = 3\nvalue = [2, 1]"] ;
1 -> 2 ;
3 [label="X[4] <= 21993.0\ngini = 0.2188\nsamples = 16\nvalue = [2, 14]"] ;
1 -> 3 ;
4 [label="gini = 0.0\nsamples = 11\nvalue = [0, 11]"] ;
3 -> 4 ;
5 [label="X[4] <= 22874.0\ngini = 0.48\nsamples = 5\nvalue = [2, 3]"] ;
3 -> 5 ;
6 [label="gini = 0.0\nsamples = 2\nvalue = [2, 0]"] ;
5 -> 6 ;
7 [label="gini = 0.0\nsamples = 3\nvalue = [0, 3]"] ;
5 -> 7 ;
8 [label="X[3] <= 335.0\ngini = 0.437\nsamples = 31\nvalue = [21, 10]"] ;
0 -> 8 [labeldistance=2.5, labelangle=-45, headlabel="False"] ;
9 [label="gini = 0.0\nsamples = 8\nvalue = [8, 0]"] ;
8 -> 9 ;
10 [label="X[1] <= 5.5\ngini = 0.4915\nsamples = 23\nvalue = [13, 10]"] ;
8 -> 10 ;
11 [label="gini = 0.0\nsamples = 5\nvalue = [5, 0]"] ;
10 -> 11 ;
12 [label="X[4] <= 31453.0\ngini = 0.4938\nsamples = 18\nvalue = [8, 10]"] ;
10 -> 12 ;
13 [label="gini = 0.2975\nsamples = 11\nvalue = [2, 9]"] ;
12 -> 13 ;
14 [label="gini = 0.2449\nsamples = 7\nvalue = [6, 1]"] ;
12 -> 14 ;
}