digraph Tree {
node [shape=box] ;
0 [label="X[4] <= 20575.0\nentropy = 0.9996\nsamples = 397\nvalue = [194, 203]"] ;
1 [label="X[3] <= 189.0\nentropy = 0.627\nsamples = 172\nvalue = [27, 145]"] ;
0 -> 1 [labeldistance=2.5, labelangle=45, headlabel="True"] ;
2 [label="entropy = 0.9799\nsamples = 24\nvalue = [14, 10]"] ;
1 -> 2 ;
3 [label="X[4] <= 17396.0\nentropy = 0.4292\nsamples = 148\nvalue = [13, 135]"] ;
1 -> 3 ;
4 [label="entropy = 0.0\nsamples = 64\nvalue = [0, 64]"] ;
3 -> 4 ;
5 [label="X[3] <= 364.5\nentropy = 0.6216\nsamples = 84\nvalue = [13, 71]"] ;
3 -> 5 ;
6 [label="entropy = 0.8757\nsamples = 44\nvalue = [13, 31]"] ;
5 -> 6 ;
7 [label="entropy = 0.0\nsamples = 40\nvalue = [0, 40]"] ;
5 -> 7 ;
8 [label="X[4] <= 25687.5\nentropy = 0.8234\nsamples = 225\nvalue = [167, 58]"] ;
0 -> 8 [labeldistance=2.5, labelangle=-45, headlabel="False"] ;
9 [label="X[1] <= 4.5\nentropy = 0.9587\nsamples = 126\nvalue = [78, 48]"] ;
8 -> 9 ;
10 [label="X[3] <= 314.5\nentropy = 0.5976\nsamples = 62\nvalue = [53, 9]"] ;
9 -> 10 ;
11 [label="entropy = 0.0\nsamples = 21\nvalue = [21, 0]"] ;
10 -> 11 ;
12 [label="entropy = 0.7593\nsamples = 41\nvalue = [32, 9]"] ;
10 -> 12 ;
13 [label="X[3] <= 386.0\nentropy = 0.9652\nsamples = 64\nvalue = [25, 39]"] ;
9 -> 13 ;
14 [label="entropy = 0.896\nsamples = 32\nvalue = [22, 10]"] ;
13 -> 14 ;
15 [label="entropy = 0.4489\nsamples = 32\nvalue = [3, 29]"] ;
13 -> 15 ;
16 [label="X[3] <= 350.0\nentropy = 0.4722\nsamples = 99\nvalue = [89, 10]"] ;
8 -> 16 ;
17 [label="X[0] <= 11.0\nentropy = 0.1687\nsamples = 40\nvalue = [39, 1]"] ;
16 -> 17 ;
18 [label="entropy = 0.0\nsamples = 26\nvalue = [26, 0]"] ;
17 -> 18 ;
19 [label="entropy = 0.3712\nsamples = 14\nvalue = [13, 1]"] ;
17 -> 19 ;
20 [label="X[4] <= 35310.5\nentropy = 0.6162\nsamples = 59\nvalue = [50, 9]"] ;
16 -> 20 ;
21 [label="entropy = 0.7219\nsamples = 45\nvalue = [36, 9]"] ;
20 -> 21 ;
22 [label="entropy = 0.0\nsamples = 14\nvalue = [14, 0]"] ;
20 -> 22 ;
}