digraph Tree {
node [shape=box] ;
0 [label="X[4] <= 20575.0\nentropy = 0.9994\nsamples = 443\nvalue = [215, 228]"] ;
1 [label="X[3] <= 189.0\nentropy = 0.6236\nsamples = 180\nvalue = [28, 152]"] ;
0 -> 1 [labeldistance=2.5, labelangle=45, headlabel="True"] ;
2 [label="X[4] <= 16402.5\nentropy = 0.971\nsamples = 25\nvalue = [15, 10]"] ;
1 -> 2 ;
3 [label="X[3] <= 177.0\nentropy = 0.469\nsamples = 10\nvalue = [1, 9]"] ;
2 -> 3 ;
4 [label="entropy = 0.0\nsamples = 7\nvalue = [0, 7]"] ;
3 -> 4 ;
5 [label="entropy = 0.9183\nsamples = 3\nvalue = [1, 2]"] ;
3 -> 5 ;
6 [label="X[4] <= 19010.0\nentropy = 0.3534\nsamples = 15\nvalue = [14, 1]"] ;
2 -> 6 ;
7 [label="entropy = 0.0\nsamples = 8\nvalue = [8, 0]"] ;
6 -> 7 ;
8 [label="X[4] <= 19407.0\nentropy = 0.5917\nsamples = 7\nvalue = [6, 1]"] ;
6 -> 8 ;
9 [label="entropy = 0.9183\nsamples = 3\nvalue = [2, 1]"] ;
8 -> 9 ;
10 [label="entropy = 0.0\nsamples = 4\nvalue = [4, 0]"] ;
8 -> 10 ;
11 [label="X[4] <= 17396.0\nentropy = 0.4157\nsamples = 155\nvalue = [13, 142]"] ;
1 -> 11 ;
12 [label="entropy = 0.0\nsamples = 66\nvalue = [0, 66]"] ;
11 -> 12 ;
13 [label="X[3] <= 364.5\nentropy = 0.5999\nsamples = 89\nvalue = [13, 76]"] ;
11 -> 13 ;
14 [label="X[1] <= 4.5\nentropy = 0.8427\nsamples = 48\nvalue = [13, 35]"] ;
13 -> 14 ;
15 [label="X[3] <= 277.5\nentropy = 0.9587\nsamples = 21\nvalue = [13, 8]"] ;
14 -> 15 ;
16 [label="entropy = 0.0\nsamples = 7\nvalue = [7, 0]"] ;
15 -> 16 ;
17 [label="entropy = 0.9852\nsamples = 14\nvalue = [6, 8]"] ;
15 -> 17 ;
18 [label="entropy = 0.0\nsamples = 27\nvalue = [0, 27]"] ;
14 -> 18 ;
19 [label="entropy = 0.0\nsamples = 41\nvalue = [0, 41]"] ;
13 -> 19 ;
20 [label="X[4] <= 25469.5\nentropy = 0.8674\nsamples = 263\nvalue = [187, 76]"] ;
0 -> 20 [labeldistance=2.5, labelangle=-45, headlabel="False"] ;
21 [label="X[0] <= 7.0\nentropy = 0.9792\nsamples = 130\nvalue = [76, 54]"] ;
20 -> 21 ;
22 [label="X[3] <= 314.5\nentropy = 0.7516\nsamples = 65\nvalue = [51, 14]"] ;
21 -> 22 ;
23 [label="X[3] <= 145.5\nentropy = 0.2762\nsamples = 21\nvalue = [20, 1]"] ;
22 -> 23 ;
24 [label="entropy = 0.9183\nsamples = 3\nvalue = [2, 1]"] ;
23 -> 24 ;
25 [label="entropy = 0.0\nsamples = 18\nvalue = [18, 0]"] ;
23 -> 25 ;
26 [label="X[3] <= 417.0\nentropy = 0.8757\nsamples = 44\nvalue = [31, 13]"] ;
22 -> 26 ;
27 [label="X[2] <= 1.5\nentropy = 0.9597\nsamples = 34\nvalue = [21, 13]"] ;
26 -> 27 ;
28 [label="entropy = 0.6962\nsamples = 16\nvalue = [13, 3]"] ;
27 -> 28 ;
29 [label="entropy = 0.9911\nsamples = 18\nvalue = [8, 10]"] ;
27 -> 29 ;
30 [label="entropy = 0.0\nsamples = 10\nvalue = [10, 0]"] ;
26 -> 30 ;
31 [label="X[3] <= 386.0\nentropy = 0.9612\nsamples = 65\nvalue = [25, 40]"] ;
21 -> 31 ;
32 [label="X[3] <= 355.5\nentropy = 0.9518\nsamples = 35\nvalue = [22, 13]"] ;
31 -> 32 ;
33 [label="X[4] <= 23736.0\nentropy = 0.9963\nsamples = 28\nvalue = [15, 13]"] ;
32 -> 33 ;
34 [label="entropy = 0.994\nsamples = 22\nvalue = [10, 12]"] ;
33 -> 34 ;
35 [label="entropy = 0.65\nsamples = 6\nvalue = [5, 1]"] ;
33 -> 35 ;
36 [label="entropy = 0.0\nsamples = 7\nvalue = [7, 0]"] ;
32 -> 36 ;
37 [label="X[4] <= 23328.0\nentropy = 0.469\nsamples = 30\nvalue = [3, 27]"] ;
31 -> 37 ;
38 [label="entropy = 0.0\nsamples = 14\nvalue = [0, 14]"] ;
37 -> 38 ;
39 [label="X[0] <= 13.0\nentropy = 0.6962\nsamples = 16\nvalue = [3, 13]"] ;
37 -> 39 ;
40 [label="entropy = 0.9544\nsamples = 8\nvalue = [3, 5]"] ;
39 -> 40 ;
41 [label="entropy = 0.0\nsamples = 8\nvalue = [0, 8]"] ;
39 -> 41 ;
42 [label="X[1] <= 6.5\nentropy = 0.6471\nsamples = 133\nvalue = [111, 22]"] ;
20 -> 42 ;
43 [label="X[3] <= 349.5\nentropy = 0.4356\nsamples = 78\nvalue = [71, 7]"] ;
42 -> 43 ;
44 [label="entropy = 0.0\nsamples = 32\nvalue = [32, 0]"] ;
43 -> 44 ;
45 [label="X[4] <= 31615.5\nentropy = 0.6153\nsamples = 46\nvalue = [39, 7]"] ;
43 -> 45 ;
46 [label="X[3] <= 410.5\nentropy = 0.6998\nsamples = 37\nvalue = [30, 7]"] ;
45 -> 46 ;
47 [label="entropy = 0.874\nsamples = 17\nvalue = [12, 5]"] ;
46 -> 47 ;
48 [label="entropy = 0.469\nsamples = 20\nvalue = [18, 2]"] ;
46 -> 48 ;
49 [label="entropy = 0.0\nsamples = 9\nvalue = [9, 0]"] ;
45 -> 49 ;
50 [label="X[4] <= 30936.5\nentropy = 0.8454\nsamples = 55\nvalue = [40, 15]"] ;
42 -> 50 ;
51 [label="X[4] <= 30037.0\nentropy = 0.971\nsamples = 30\nvalue = [18, 12]"] ;
50 -> 51 ;
52 [label="X[4] <= 28691.5\nentropy = 0.9044\nsamples = 25\nvalue = [17, 8]"] ;
51 -> 52 ;
53 [label="entropy = 0.9911\nsamples = 18\nvalue = [10, 8]"] ;
52 -> 53 ;
54 [label="entropy = 0.0\nsamples = 7\nvalue = [7, 0]"] ;
52 -> 54 ;
55 [label="entropy = 0.7219\nsamples = 5\nvalue = [1, 4]"] ;
51 -> 55 ;
56 [label="X[3] <= 419.0\nentropy = 0.5294\nsamples = 25\nvalue = [22, 3]"] ;
50 -> 56 ;
57 [label="entropy = 0.0\nsamples = 16\nvalue = [16, 0]"] ;
56 -> 57 ;
58 [label="X[4] <= 41221.5\nentropy = 0.9183\nsamples = 9\nvalue = [6, 3]"] ;
56 -> 58 ;
59 [label="entropy = 0.971\nsamples = 5\nvalue = [2, 3]"] ;
58 -> 59 ;
60 [label="entropy = 0.0\nsamples = 4\nvalue = [4, 0]"] ;
58 -> 60 ;
}