digraph Tree {
node [shape=box] ;
0 [label="X[4] <= 22233.0\ngini = 0.4976\nsamples = 606\nvalue = [282, 324]"] ;
1 [label="X[3] <= 189.0\ngini = 0.303\nsamples = 274\nvalue = [51, 223]"] ;
0 -> 1 [labeldistance=2.5, labelangle=45, headlabel="True"] ;
2 [label="X[4] <= 16402.5\ngini = 0.497\nsamples = 39\nvalue = [21, 18]"] ;
1 -> 2 ;
3 [label="X[4] <= 13310.5\ngini = 0.1172\nsamples = 16\nvalue = [1, 15]"] ;
2 -> 3 ;
4 [label="gini = 0.2778\nsamples = 6\nvalue = [1, 5]"] ;
3 -> 4 ;
5 [label="gini = 0.0\nsamples = 10\nvalue = [0, 10]"] ;
3 -> 5 ;
6 [label="X[3] <= 169.5\ngini = 0.2268\nsamples = 23\nvalue = [20, 3]"] ;
2 -> 6 ;
7 [label="gini = 0.0\nsamples = 11\nvalue = [11, 0]"] ;
6 -> 7 ;
8 [label="X[4] <= 19010.0\ngini = 0.375\nsamples = 12\nvalue = [9, 3]"] ;
6 -> 8 ;
9 [label="gini = 0.0\nsamples = 6\nvalue = [6, 0]"] ;
8 -> 9 ;
10 [label="gini = 0.5\nsamples = 6\nvalue = [3, 3]"] ;
8 -> 10 ;
11 [label="X[4] <= 19999.0\ngini = 0.2227\nsamples = 235\nvalue = [30, 205]"] ;
1 -> 11 ;
12 [label="X[4] <= 17396.0\ngini = 0.1095\nsamples = 172\nvalue = [10, 162]"] ;
11 -> 12 ;
13 [label="gini = 0.0\nsamples = 77\nvalue = [0, 77]"] ;
12 -> 13 ;
14 [label="X[3] <= 279.5\ngini = 0.1884\nsamples = 95\nvalue = [10, 85]"] ;
12 -> 14 ;
15 [label="X[1] <= 5.5\ngini = 0.4152\nsamples = 17\nvalue = [5, 12]"] ;
14 -> 15 ;
16 [label="gini = 0.4082\nsamples = 7\nvalue = [5, 2]"] ;
15 -> 16 ;
17 [label="gini = 0.0\nsamples = 10\nvalue = [0, 10]"] ;
15 -> 17 ;
18 [label="X[4] <= 18190.5\ngini = 0.12\nsamples = 78\nvalue = [5, 73]"] ;
14 -> 18 ;
19 [label="X[3] <= 345.5\ngini = 0.2975\nsamples = 22\nvalue = [4, 18]"] ;
18 -> 19 ;
20 [label="X[4] <= 17784.0\ngini = 0.4444\nsamples = 12\nvalue = [4, 8]"] ;
19 -> 20 ;
21 [label="gini = 0.2778\nsamples = 6\nvalue = [1, 5]"] ;
20 -> 21 ;
22 [label="gini = 0.5\nsamples = 6\nvalue = [3, 3]"] ;
20 -> 22 ;
23 [label="gini = 0.0\nsamples = 10\nvalue = [0, 10]"] ;
19 -> 23 ;
24 [label="X[2] <= 2.5\ngini = 0.0351\nsamples = 56\nvalue = [1, 55]"] ;
18 -> 24 ;
25 [label="gini = 0.0\nsamples = 39\nvalue = [0, 39]"] ;
24 -> 25 ;
26 [label="X[1] <= 6.5\ngini = 0.1107\nsamples = 17\nvalue = [1, 16]"] ;
24 -> 26 ;
27 [label="gini = 0.2778\nsamples = 6\nvalue = [1, 5]"] ;
26 -> 27 ;
28 [label="gini = 0.0\nsamples = 11\nvalue = [0, 11]"] ;
26 -> 28 ;
29 [label="X[1] <= 4.5\ngini = 0.4334\nsamples = 63\nvalue = [20, 43]"] ;
11 -> 29 ;
30 [label="X[3] <= 323.5\ngini = 0.4978\nsamples = 30\nvalue = [16, 14]"] ;
29 -> 30 ;
31 [label="X[3] <= 292.0\ngini = 0.2449\nsamples = 14\nvalue = [12, 2]"] ;
30 -> 31 ;
32 [label="gini = 0.4082\nsamples = 7\nvalue = [5, 2]"] ;
31 -> 32 ;
33 [label="gini = 0.0\nsamples = 7\nvalue = [7, 0]"] ;
31 -> 33 ;
34 [label="X[4] <= 21105.0\ngini = 0.375\nsamples = 16\nvalue = [4, 12]"] ;
30 -> 34 ;
35 [label="gini = 0.4688\nsamples = 8\nvalue = [3, 5]"] ;
34 -> 35 ;
36 [label="gini = 0.2188\nsamples = 8\nvalue = [1, 7]"] ;
34 -> 36 ;
37 [label="X[3] <= 351.0\ngini = 0.213\nsamples = 33\nvalue = [4, 29]"] ;
29 -> 37 ;
38 [label="X[0] <= 13.0\ngini = 0.3457\nsamples = 18\nvalue = [4, 14]"] ;
37 -> 38 ;
39 [label="gini = 0.4628\nsamples = 11\nvalue = [4, 7]"] ;
38 -> 39 ;
40 [label="gini = 0.0\nsamples = 7\nvalue = [0, 7]"] ;
38 -> 40 ;
41 [label="gini = 0.0\nsamples = 15\nvalue = [0, 15]"] ;
37 -> 41 ;
42 [label="X[4] <= 38539.0\ngini = 0.4233\nsamples = 332\nvalue = [231, 101]"] ;
0 -> 42 [labeldistance=2.5, labelangle=-45, headlabel="False"] ;
43 [label="X[0] <= 15.0\ngini = 0.4496\nsamples = 296\nvalue = [195, 101]"] ;
42 -> 43 ;
44 [label="X[1] <= 5.5\ngini = 0.416\nsamples = 261\nvalue = [184, 77]"] ;
43 -> 44 ;
45 [label="X[4] <= 26702.0\ngini = 0.3545\nsamples = 152\nvalue = [117, 35]"] ;
44 -> 45 ;
46 [label="X[3] <= 420.5\ngini = 0.4094\nsamples = 101\nvalue = [72, 29]"] ;
45 -> 46 ;
47 [label="X[3] <= 352.5\ngini = 0.4419\nsamples = 88\nvalue = [59, 29]"] ;
46 -> 47 ;
48 [label="X[4] <= 22963.0\ngini = 0.3482\nsamples = 49\nvalue = [38, 11]"] ;
47 -> 48 ;
49 [label="gini = 0.1172\nsamples = 16\nvalue = [15, 1]"] ;
48 -> 49 ;
50 [label="gini = 0.4224\nsamples = 33\nvalue = [23, 10]"] ;
48 -> 50 ;
51 [label="X[4] <= 23127.0\ngini = 0.497\nsamples = 39\nvalue = [21, 18]"] ;
47 -> 51 ;
52 [label="gini = 0.1975\nsamples = 9\nvalue = [1, 8]"] ;
51 -> 52 ;
53 [label="gini = 0.4444\nsamples = 30\nvalue = [20, 10]"] ;
51 -> 53 ;
54 [label="gini = 0.0\nsamples = 13\nvalue = [13, 0]"] ;
46 -> 54 ;
55 [label="X[4] <= 31752.0\ngini = 0.2076\nsamples = 51\nvalue = [45, 6]"] ;
45 -> 55 ;
56 [label="X[3] <= 381.5\ngini = 0.162\nsamples = 45\nvalue = [41, 4]"] ;
55 -> 56 ;
57 [label="X[4] <= 29812.0\ngini = 0.074\nsamples = 26\nvalue = [25, 1]"] ;
56 -> 57 ;
58 [label="gini = 0.0\nsamples = 20\nvalue = [20, 0]"] ;
57 -> 58 ;
59 [label="gini = 0.2778\nsamples = 6\nvalue = [5, 1]"] ;
57 -> 59 ;
60 [label="X[4] <= 29046.0\ngini = 0.2659\nsamples = 19\nvalue = [16, 3]"] ;
56 -> 60 ;
61 [label="gini = 0.42\nsamples = 10\nvalue = [7, 3]"] ;
60 -> 61 ;
62 [label="gini = 0.0\nsamples = 9\nvalue = [9, 0]"] ;
60 -> 62 ;
63 [label="gini = 0.4444\nsamples = 6\nvalue = [4, 2]"] ;
55 -> 63 ;
64 [label="X[4] <= 28703.0\ngini = 0.4737\nsamples = 109\nvalue = [67, 42]"] ;
44 -> 64 ;
65 [label="X[4] <= 28302.5\ngini = 0.4985\nsamples = 72\nvalue = [38, 34]"] ;
64 -> 65 ;
66 [label="X[3] <= 388.0\ngini = 0.4927\nsamples = 66\nvalue = [37, 29]"] ;
65 -> 66 ;
67 [label="X[2] <= 4.5\ngini = 0.4444\nsamples = 39\nvalue = [26, 13]"] ;
66 -> 67 ;
68 [label="gini = 0.4745\nsamples = 31\nvalue = [19, 12]"] ;
67 -> 68 ;
69 [label="gini = 0.2188\nsamples = 8\nvalue = [7, 1]"] ;
67 -> 69 ;
70 [label="X[4] <= 25687.5\ngini = 0.4829\nsamples = 27\nvalue = [11, 16]"] ;
66 -> 70 ;
71 [label="gini = 0.2188\nsamples = 16\nvalue = [2, 14]"] ;
70 -> 71 ;
72 [label="gini = 0.2975\nsamples = 11\nvalue = [9, 2]"] ;
70 -> 72 ;
73 [label="gini = 0.2778\nsamples = 6\nvalue = [1, 5]"] ;
65 -> 73 ;
74 [label="X[3] <= 347.0\ngini = 0.3389\nsamples = 37\nvalue = [29, 8]"] ;
64 -> 74 ;
75 [label="X[4] <= 30194.0\ngini = 0.1244\nsamples = 15\nvalue = [14, 1]"] ;
74 -> 75 ;
76 [label="gini = 0.2778\nsamples = 6\nvalue = [5, 1]"] ;
75 -> 76 ;
77 [label="gini = 0.0\nsamples = 9\nvalue = [9, 0]"] ;
75 -> 77 ;
78 [label="X[4] <= 32622.5\ngini = 0.4339\nsamples = 22\nvalue = [15, 7]"] ;
74 -> 78 ;
79 [label="X[4] <= 30015.5\ngini = 0.5\nsamples = 12\nvalue = [6, 6]"] ;
78 -> 79 ;
80 [label="gini = 0.4444\nsamples = 6\nvalue = [4, 2]"] ;
79 -> 80 ;
81 [label="gini = 0.4444\nsamples = 6\nvalue = [2, 4]"] ;
79 -> 81 ;
82 [label="gini = 0.18\nsamples = 10\nvalue = [9, 1]"] ;
78 -> 82 ;
83 [label="X[4] <= 25770.0\ngini = 0.431\nsamples = 35\nvalue = [11, 24]"] ;
43 -> 83 ;
84 [label="gini = 0.0\nsamples = 8\nvalue = [0, 8]"] ;
83 -> 84 ;
85 [label="X[3] <= 417.0\ngini = 0.4829\nsamples = 27\nvalue = [11, 16]"] ;
83 -> 85 ;
86 [label="X[0] <= 17.0\ngini = 0.4989\nsamples = 21\nvalue = [10, 11]"] ;
85 -> 86 ;
87 [label="X[3] <= 354.0\ngini = 0.4592\nsamples = 14\nvalue = [5, 9]"] ;
86 -> 87 ;
88 [label="gini = 0.0\nsamples = 6\nvalue = [0, 6]"] ;
87 -> 88 ;
89 [label="gini = 0.4688\nsamples = 8\nvalue = [5, 3]"] ;
87 -> 89 ;
90 [label="gini = 0.4082\nsamples = 7\nvalue = [5, 2]"] ;
86 -> 90 ;
91 [label="gini = 0.2778\nsamples = 6\nvalue = [1, 5]"] ;
85 -> 91 ;
92 [label="gini = 0.0\nsamples = 36\nvalue = [36, 0]"] ;
42 -> 92 ;
}