digraph Tree {
node [shape=box] ;
0 [label="X[4] <= 20575.0\ngini = 0.4997\nsamples = 382\nvalue = [186, 196]"] ;
1 [label="X[3] <= 189.0\ngini = 0.2571\nsamples = 165\nvalue = [25, 140]"] ;
0 -> 1 [labeldistance=2.5, labelangle=45, headlabel="True"] ;
2 [label="X[4] <= 16402.5\ngini = 0.4959\nsamples = 22\nvalue = [12, 10]"] ;
1 -> 2 ;
3 [label="X[3] <= 168.0\ngini = 0.18\nsamples = 10\nvalue = [1, 9]"] ;
2 -> 3 ;
4 [label="gini = 0.0\nsamples = 6\nvalue = [0, 6]"] ;
3 -> 4 ;
5 [label="gini = 0.375\nsamples = 4\nvalue = [1, 3]"] ;
3 -> 5 ;
6 [label="X[3] <= 172.0\ngini = 0.1528\nsamples = 12\nvalue = [11, 1]"] ;
2 -> 6 ;
7 [label="gini = 0.0\nsamples = 6\nvalue = [6, 0]"] ;
6 -> 7 ;
8 [label="gini = 0.2778\nsamples = 6\nvalue = [5, 1]"] ;
6 -> 8 ;
9 [label="X[4] <= 17396.0\ngini = 0.1653\nsamples = 143\nvalue = [13, 130]"] ;
1 -> 9 ;
10 [label="gini = 0.0\nsamples = 62\nvalue = [0, 62]"] ;
9 -> 10 ;
11 [label="X[3] <= 345.5\ngini = 0.2695\nsamples = 81\nvalue = [13, 68]"] ;
9 -> 11 ;
12 [label="X[1] <= 4.5\ngini = 0.4383\nsamples = 37\nvalue = [12, 25]"] ;
11 -> 12 ;
13 [label="X[3] <= 277.5\ngini = 0.375\nsamples = 16\nvalue = [12, 4]"] ;
12 -> 13 ;
14 [label="gini = 0.0\nsamples = 7\nvalue = [7, 0]"] ;
13 -> 14 ;
15 [label="gini = 0.4938\nsamples = 9\nvalue = [5, 4]"] ;
13 -> 15 ;
16 [label="gini = 0.0\nsamples = 21\nvalue = [0, 21]"] ;
12 -> 16 ;
17 [label="X[3] <= 364.5\ngini = 0.0444\nsamples = 44\nvalue = [1, 43]"] ;
11 -> 17 ;
18 [label="gini = 0.2449\nsamples = 7\nvalue = [1, 6]"] ;
17 -> 18 ;
19 [label="gini = 0.0\nsamples = 37\nvalue = [0, 37]"] ;
17 -> 19 ;
20 [label="X[4] <= 25469.5\ngini = 0.3829\nsamples = 217\nvalue = [161, 56]"] ;
0 -> 20 [labeldistance=2.5, labelangle=-45, headlabel="False"] ;
21 [label="X[3] <= 403.0\ngini = 0.4749\nsamples = 116\nvalue = [71, 45]"] ;
20 -> 21 ;
22 [label="X[2] <= 3.5\ngini = 0.3356\nsamples = 75\nvalue = [59, 16]"] ;
21 -> 22 ;
23 [label="X[4] <= 22524.5\ngini = 0.1944\nsamples = 55\nvalue = [49, 6]"] ;
22 -> 23 ;
24 [label="gini = 0.0\nsamples = 24\nvalue = [24, 0]"] ;
23 -> 24 ;
25 [label="X[3] <= 369.0\ngini = 0.3122\nsamples = 31\nvalue = [25, 6]"] ;
23 -> 25 ;
26 [label="gini = 0.4321\nsamples = 19\nvalue = [13, 6]"] ;
25 -> 26 ;
27 [label="gini = 0.0\nsamples = 12\nvalue = [12, 0]"] ;
25 -> 27 ;
28 [label="X[4] <= 22078.5\ngini = 0.5\nsamples = 20\nvalue = [10, 10]"] ;
22 -> 28 ;
29 [label="gini = 0.2449\nsamples = 7\nvalue = [1, 6]"] ;
28 -> 29 ;
30 [label="X[1] <= 8.5\ngini = 0.426\nsamples = 13\nvalue = [9, 4]"] ;
28 -> 30 ;
31 [label="gini = 0.0\nsamples = 7\nvalue = [7, 0]"] ;
30 -> 31 ;
32 [label="gini = 0.4444\nsamples = 6\nvalue = [2, 4]"] ;
30 -> 32 ;
33 [label="X[2] <= 2.5\ngini = 0.414\nsamples = 41\nvalue = [12, 29]"] ;
21 -> 33 ;
34 [label="X[3] <= 418.5\ngini = 0.375\nsamples = 12\nvalue = [9, 3]"] ;
33 -> 34 ;
35 [label="gini = 0.48\nsamples = 5\nvalue = [2, 3]"] ;
34 -> 35 ;
36 [label="gini = 0.0\nsamples = 7\nvalue = [7, 0]"] ;
34 -> 36 ;
37 [label="X[4] <= 23328.0\ngini = 0.1855\nsamples = 29\nvalue = [3, 26]"] ;
33 -> 37 ;
38 [label="gini = 0.0\nsamples = 14\nvalue = [0, 14]"] ;
37 -> 38 ;
39 [label="X[0] <= 13.0\ngini = 0.32\nsamples = 15\nvalue = [3, 12]"] ;
37 -> 39 ;
40 [label="gini = 0.4688\nsamples = 8\nvalue = [3, 5]"] ;
39 -> 40 ;
41 [label="gini = 0.0\nsamples = 7\nvalue = [0, 7]"] ;
39 -> 41 ;
42 [label="X[2] <= 4.5\ngini = 0.1941\nsamples = 101\nvalue = [90, 11]"] ;
20 -> 42 ;
43 [label="X[3] <= 349.5\ngini = 0.1372\nsamples = 81\nvalue = [75, 6]"] ;
42 -> 43 ;
44 [label="gini = 0.0\nsamples = 33\nvalue = [33, 0]"] ;
43 -> 44 ;
45 [label="X[3] <= 410.5\ngini = 0.2188\nsamples = 48\nvalue = [42, 6]"] ;
43 -> 45 ;
46 [label="X[4] <= 27391.5\ngini = 0.3628\nsamples = 21\nvalue = [16, 5]"] ;
45 -> 46 ;
47 [label="gini = 0.48\nsamples = 5\nvalue = [2, 3]"] ;
46 -> 47 ;
48 [label="gini = 0.2188\nsamples = 16\nvalue = [14, 2]"] ;
46 -> 48 ;
49 [label="X[1] <= 7.5\ngini = 0.0713\nsamples = 27\nvalue = [26, 1]"] ;
45 -> 49 ;
50 [label="gini = 0.0\nsamples = 23\nvalue = [23, 0]"] ;
49 -> 50 ;
51 [label="gini = 0.375\nsamples = 4\nvalue = [3, 1]"] ;
49 -> 51 ;
52 [label="X[3] <= 418.5\ngini = 0.375\nsamples = 20\nvalue = [15, 5]"] ;
42 -> 52 ;
53 [label="X[3] <= 317.0\ngini = 0.142\nsamples = 13\nvalue = [12, 1]"] ;
52 -> 53 ;
54 [label="gini = 0.375\nsamples = 4\nvalue = [3, 1]"] ;
53 -> 54 ;
55 [label="gini = 0.0\nsamples = 9\nvalue = [9, 0]"] ;
53 -> 55 ;
56 [label="gini = 0.4898\nsamples = 7\nvalue = [3, 4]"] ;
52 -> 56 ;
}