digraph Tree {
node [shape=box] ;
0 [label="X[4] <= 20575.0\ngini = 0.4996\nsamples = 439\nvalue = [213, 226]"] ;
1 [label="X[3] <= 189.0\ngini = 0.2627\nsamples = 180\nvalue = [28, 152]"] ;
0 -> 1 [labeldistance=2.5, labelangle=45, headlabel="True"] ;
2 [label="X[4] <= 16402.5\ngini = 0.48\nsamples = 25\nvalue = [15, 10]"] ;
1 -> 2 ;
3 [label="X[3] <= 177.0\ngini = 0.18\nsamples = 10\nvalue = [1, 9]"] ;
2 -> 3 ;
4 [label="gini = 0.0\nsamples = 7\nvalue = [0, 7]"] ;
3 -> 4 ;
5 [label="gini = 0.4444\nsamples = 3\nvalue = [1, 2]"] ;
3 -> 5 ;
6 [label="X[4] <= 19010.0\ngini = 0.1244\nsamples = 15\nvalue = [14, 1]"] ;
2 -> 6 ;
7 [label="gini = 0.0\nsamples = 8\nvalue = [8, 0]"] ;
6 -> 7 ;
8 [label="gini = 0.2449\nsamples = 7\nvalue = [6, 1]"] ;
6 -> 8 ;
9 [label="X[4] <= 17396.0\ngini = 0.1537\nsamples = 155\nvalue = [13, 142]"] ;
1 -> 9 ;
10 [label="gini = 0.0\nsamples = 66\nvalue = [0, 66]"] ;
9 -> 10 ;
11 [label="X[3] <= 276.0\ngini = 0.2495\nsamples = 89\nvalue = [13, 76]"] ;
9 -> 11 ;
12 [label="gini = 0.4978\nsamples = 15\nvalue = [7, 8]"] ;
11 -> 12 ;
13 [label="gini = 0.149\nsamples = 74\nvalue = [6, 68]"] ;
11 -> 13 ;
14 [label="X[1] <= 4.5\ngini = 0.4082\nsamples = 259\nvalue = [185, 74]"] ;
0 -> 14 [labeldistance=2.5, labelangle=-45, headlabel="False"] ;
15 [label="X[3] <= 364.0\ngini = 0.2413\nsamples = 114\nvalue = [98, 16]"] ;
14 -> 15 ;
16 [label="X[3] <= 314.5\ngini = 0.0981\nsamples = 58\nvalue = [55, 3]"] ;
15 -> 16 ;
17 [label="gini = 0.0\nsamples = 33\nvalue = [33, 0]"] ;
16 -> 17 ;
18 [label="gini = 0.2112\nsamples = 25\nvalue = [22, 3]"] ;
16 -> 18 ;
19 [label="X[4] <= 22933.0\ngini = 0.3565\nsamples = 56\nvalue = [43, 13]"] ;
15 -> 19 ;
20 [label="gini = 0.2188\nsamples = 8\nvalue = [1, 7]"] ;
19 -> 20 ;
21 [label="gini = 0.2188\nsamples = 48\nvalue = [42, 6]"] ;
19 -> 21 ;
22 [label="X[4] <= 25687.5\ngini = 0.48\nsamples = 145\nvalue = [87, 58]"] ;
14 -> 22 ;
23 [label="X[3] <= 386.0\ngini = 0.4723\nsamples = 68\nvalue = [26, 42]"] ;
22 -> 23 ;
24 [label="gini = 0.4614\nsamples = 36\nvalue = [23, 13]"] ;
23 -> 24 ;
25 [label="gini = 0.1699\nsamples = 32\nvalue = [3, 29]"] ;
23 -> 25 ;
26 [label="X[3] <= 296.5\ngini = 0.3292\nsamples = 77\nvalue = [61, 16]"] ;
22 -> 26 ;
27 [label="gini = 0.5\nsamples = 8\nvalue = [4, 4]"] ;
26 -> 27 ;
28 [label="gini = 0.2873\nsamples = 69\nvalue = [57, 12]"] ;
26 -> 28 ;
}